{"rm_object_type":"com.rapidminer.operator.learner.functions.neuralnet.ImprovedNeuralNetModel","rm_object_version":"10.2.0","headerExampleSet":{"@id":1,"width":22,"columns":[{"name":"Last Fechas in window","type":"Date-Time","role":"id"},{"name":"Casos - 9","type":"Real"},{"name":"Casos - 8","type":"Real"},{"name":"Casos - 7","type":"Real"},{"name":"Casos - 6","type":"Real"},{"name":"Casos - 5","type":"Real"},{"name":"Casos - 4","type":"Real"},{"name":"Casos - 3","type":"Real"},{"name":"Casos - 2","type":"Real"},{"name":"Casos - 1","type":"Real"},{"name":"Casos - 0","type":"Real"},{"name":"Vacunas - 9","type":"Real"},{"name":"Vacunas - 8","type":"Real"},{"name":"Vacunas - 7","type":"Real"},{"name":"Vacunas - 6","type":"Real"},{"name":"Vacunas - 5","type":"Real"},{"name":"Vacunas - 4","type":"Real"},{"name":"Vacunas - 3","type":"Real"},{"name":"Vacunas - 2","type":"Real"},{"name":"Vacunas - 1","type":"Real"},{"name":"Vacunas - 0","type":"Real"},{"name":"Casos + 1 (horizon)","type":"Real","role":"label"}]},"compareDataType":"ALLOW_SAME_PARENTS","compareSetSize":"ALLOW_SUPERSET","attributeNames":["Casos - 9","Casos - 8","Casos - 7","Casos - 6","Casos - 5","Casos - 4","Casos - 3","Casos - 2","Casos - 1","Casos - 0","Vacunas - 9","Vacunas - 8","Vacunas - 7","Vacunas - 6","Vacunas - 5","Vacunas - 4","Vacunas - 3","Vacunas - 2","Vacunas - 1","Vacunas - 0"],"inputNodes":[{"rm_object_type":"com.rapidminer.operator.learner.functions.neuralnet.InputNode","@id":2,"layerIndex":-1,"nodeName":"Casos - 9","nodeType":-1,"weightsAreUpdated":true,"inputNodes":[],"outputNodes":[{"rm_object_type":"com.rapidminer.operator.learner.functions.neuralnet.InnerNode","@id":3,"layerIndex":0,"nodeName":"Node 1","nodeType":0,"weightsAreUpdated":true,"inputNodes":[2,{"rm_object_type":"com.rapidminer.operator.learner.functions.neuralnet.InputNode","@id":4,"layerIndex":-1,"nodeName":"Casos - 8","nodeType":-1,"weightsAreUpdated":true,"inputNodes":[],"outputNodes":[3,{"rm_object_type":"com.rapidminer.operator.learner.functions.neuralnet.InnerNode","@id":5,"layerIndex":0,"nodeName":"Node 2","nodeType":0,"weightsAreUpdated":true,"inputNodes":[2,4,{"rm_object_type":"com.rapidminer.operator.learner.functions.neuralnet.InputNode","@id":6,"layerIndex":-1,"nodeName":"Casos - 7","nodeType":-1,"weightsAreUpdated":true,"inputNodes":[],"outputNodes":[3,5,{"rm_object_type":"com.rapidminer.operator.learner.functions.neuralnet.InnerNode","@id":7,"layerIndex":0,"nodeName":"Node 3","nodeType":0,"weightsAreUpdated":true,"inputNodes":[2,4,6,{"rm_object_type":"com.rapidminer.operator.learner.functions.neuralnet.InputNode","@id":8,"layerIndex":-1,"nodeName":"Casos - 6","nodeType":-1,"weightsAreUpdated":true,"inputNodes":[],"outputNodes":[3,5,7,{"rm_object_type":"com.rapidminer.operator.learner.functions.neuralnet.InnerNode","@id":9,"layerIndex":0,"nodeName":"Node 4","nodeType":0,"weightsAreUpdated":true,"inputNodes":[2,4,6,8,{"rm_object_type":"com.rapidminer.operator.learner.functions.neuralnet.InputNode","@id":10,"layerIndex":-1,"nodeName":"Casos - 5","nodeType":-1,"weightsAreUpdated":true,"inputNodes":[],"outputNodes":[3,5,7,9,{"rm_object_type":"com.rapidminer.operator.learner.functions.neuralnet.InnerNode","@id":11,"layerIndex":0,"nodeName":"Node 5","nodeType":0,"weightsAreUpdated":true,"inputNodes":[2,4,6,8,10,{"rm_object_type":"com.rapidminer.operator.learner.functions.neuralnet.InputNode","@id":12,"layerIndex":-1,"nodeName":"Casos - 4","nodeType":-1,"weightsAreUpdated":true,"inputNodes":[],"outputNodes":[3,5,7,9,11,{"rm_object_type":"com.rapidminer.operator.learner.functions.neuralnet.InnerNode","@id":13,"layerIndex":0,"nodeName":"Node 6","nodeType":0,"weightsAreUpdated":true,"inputNodes":[2,4,6,8,10,12,{"rm_object_type":"com.rapidminer.operator.learner.functions.neuralnet.InputNode","@id":14,"layerIndex":-1,"nodeName":"Casos - 3","nodeType":-1,"weightsAreUpdated":true,"inputNodes":[],"outputNodes":[3,5,7,9,11,13,{"rm_object_type":"com.rapidminer.operator.learner.functions.neuralnet.InnerNode","@id":15,"layerIndex":0,"nodeName":"Node 7","nodeType":0,"weightsAreUpdated":true,"inputNodes":[2,4,6,8,10,12,14,{"rm_object_type":"com.rapidminer.operator.learner.functions.neuralnet.InputNode","@id":16,"layerIndex":-1,"nodeName":"Casos - 2","nodeType":-1,"weightsAreUpdated":true,"inputNodes":[],"outputNodes":[3,5,7,9,11,13,15,{"rm_object_type":"com.rapidminer.operator.learner.functions.neuralnet.InnerNode","@id":17,"layerIndex":0,"nodeName":"Node 8","nodeType":0,"weightsAreUpdated":true,"inputNodes":[2,4,6,8,10,12,14,16,{"rm_object_type":"com.rapidminer.operator.learner.functions.neuralnet.InputNode","@id":18,"layerIndex":-1,"nodeName":"Casos - 1","nodeType":-1,"weightsAreUpdated":true,"inputNodes":[],"outputNodes":[3,5,7,9,11,13,15,17,{"rm_object_type":"com.rapidminer.operator.learner.functions.neuralnet.InnerNode","@id":19,"layerIndex":0,"nodeName":"Node 9","nodeType":0,"weightsAreUpdated":true,"inputNodes":[2,4,6,8,10,12,14,16,18,{"rm_object_type":"com.rapidminer.operator.learner.functions.neuralnet.InputNode","@id":20,"layerIndex":-1,"nodeName":"Casos - 0","nodeType":-1,"weightsAreUpdated":true,"inputNodes":[],"outputNodes":[3,5,7,9,11,13,15,17,19,{"rm_object_type":"com.rapidminer.operator.learner.functions.neuralnet.InnerNode","@id":21,"layerIndex":0,"nodeName":"Node 10","nodeType":0,"weightsAreUpdated":true,"inputNodes":[2,4,6,8,10,12,14,16,18,20,{"rm_object_type":"com.rapidminer.operator.learner.functions.neuralnet.InputNode","@id":22,"layerIndex":-1,"nodeName":"Vacunas - 9","nodeType":-1,"weightsAreUpdated":true,"inputNodes":[],"outputNodes":[3,5,7,9,11,13,15,17,19,21,{"rm_object_type":"com.rapidminer.operator.learner.functions.neuralnet.InnerNode","@id":23,"layerIndex":0,"nodeName":"Node 11","nodeType":0,"weightsAreUpdated":true,"inputNodes":[2,4,6,8,10,12,14,16,18,20,22,{"rm_object_type":"com.rapidminer.operator.learner.functions.neuralnet.InputNode","@id":24,"layerIndex":-1,"nodeName":"Vacunas - 8","nodeType":-1,"weightsAreUpdated":true,"inputNodes":[],"outputNodes":[3,5,7,9,11,13,15,17,19,21,23,{"rm_object_type":"com.rapidminer.operator.learner.functions.neuralnet.InnerNode","@id":25,"layerIndex":0,"nodeName":"Node 12","nodeType":0,"weightsAreUpdated":true,"inputNodes":[2,4,6,8,10,12,14,16,18,20,22,24,{"rm_object_type":"com.rapidminer.operator.learner.functions.neuralnet.InputNode","@id":26,"layerIndex":-1,"nodeName":"Vacunas - 7","nodeType":-1,"weightsAreUpdated":true,"inputNodes":[],"outputNodes":[3,5,7,9,11,13,15,17,19,21,23,25],"inputNodeOutputIndices":[],"outputNodeInputIndices":[12,12,12,12,12,12,12,12,12,12,12,12],"currentValue":0.37391155254552805,"currentError":-0.07134429819083596,"attributeName":"Vacunas - 7","attributeRange":122479.5,"attributeBase":390790.5,"normalize":true},{"rm_object_type":"com.rapidminer.operator.learner.functions.neuralnet.InputNode","@id":27,"layerIndex":-1,"nodeName":"Vacunas - 6","nodeType":-1,"weightsAreUpdated":true,"inputNodes":[],"outputNodes":[3,5,7,9,11,13,15,17,19,21,23,25],"inputNodeOutputIndices":[],"outputNodeInputIndices":[13,13,13,13,13,13,13,13,13,13,13,13],"currentValue":0.17786241779236525,"currentError":-0.07134429819083596,"attributeName":"Vacunas - 6","attributeRange":122479.5,"attributeBase":390790.5,"normalize":true},{"rm_object_type":"com.rapidminer.operator.learner.functions.neuralnet.InputNode","@id":28,"layerIndex":-1,"nodeName":"Vacunas - 5","nodeType":-1,"weightsAreUpdated":true,"inputNodes":[],"outputNodes":[3,5,7,9,11,13,15,17,19,21,23,25],"inputNodeOutputIndices":[],"outputNodeInputIndices":[14,14,14,14,14,14,14,14,14,14,14,14],"currentValue":1.0,"currentError":-0.07134429819083596,"attributeName":"Vacunas - 5","attributeRange":122479.5,"attributeBase":390790.5,"normalize":true},{"rm_object_type":"com.rapidminer.operator.learner.functions.neuralnet.InputNode","@id":29,"layerIndex":-1,"nodeName":"Vacunas - 4","nodeType":-1,"weightsAreUpdated":true,"inputNodes":[],"outputNodes":[3,5,7,9,11,13,15,17,19,21,23,25],"inputNodeOutputIndices":[],"outputNodeInputIndices":[15,15,15,15,15,15,15,15,15,15,15,15],"currentValue":-1.0,"currentError":-0.07134429819083596,"attributeName":"Vacunas - 4","attributeRange":122479.5,"attributeBase":390790.5,"normalize":true},{"rm_object_type":"com.rapidminer.operator.learner.functions.neuralnet.InputNode","@id":30,"layerIndex":-1,"nodeName":"Vacunas - 3","nodeType":-1,"weightsAreUpdated":true,"inputNodes":[],"outputNodes":[3,5,7,9,11,13,15,17,19,21,23,25],"inputNodeOutputIndices":[],"outputNodeInputIndices":[16,16,16,16,16,16,16,16,16,16,16,16],"currentValue":-0.3335211198608747,"currentError":-0.07134429819083596,"attributeName":"Vacunas - 3","attributeRange":122479.5,"attributeBase":390790.5,"normalize":true},{"rm_object_type":"com.rapidminer.operator.learner.functions.neuralnet.InputNode","@id":31,"layerIndex":-1,"nodeName":"Vacunas - 2","nodeType":-1,"weightsAreUpdated":true,"inputNodes":[],"outputNodes":[3,5,7,9,11,13,15,17,19,21,23,25],"inputNodeOutputIndices":[],"outputNodeInputIndices":[17,17,17,17,17,17,17,17,17,17,17,17],"currentValue":0.14934865114370705,"currentError":-0.07134429819083596,"attributeName":"Vacunas - 2","attributeRange":126737.0,"attributeBase":395048.0,"normalize":true},{"rm_object_type":"com.rapidminer.operator.learner.functions.neuralnet.InputNode","@id":32,"layerIndex":-1,"nodeName":"Vacunas - 1","nodeType":-1,"weightsAreUpdated":true,"inputNodes":[],"outputNodes":[3,5,7,9,11,13,15,17,19,21,23,25],"inputNodeOutputIndices":[],"outputNodeInputIndices":[18,18,18,18,18,18,18,18,18,18,18,18],"currentValue":-0.02226271076803657,"currentError":-0.07134429819083596,"attributeName":"Vacunas - 1","attributeRange":92756.0,"attributeBase":429029.0,"normalize":true},{"rm_object_type":"com.rapidminer.operator.learner.functions.neuralnet.InputNode","@id":33,"layerIndex":-1,"nodeName":"Vacunas - 0","nodeType":-1,"weightsAreUpdated":true,"inputNodes":[],"outputNodes":[3,5,7,9,11,13,15,17,19,21,23,25],"inputNodeOutputIndices":[],"outputNodeInputIndices":[19,19,19,19,19,19,19,19,19,19,19,19],"currentValue":0.14504722066497047,"currentError":-0.07134429819083596,"attributeName":"Vacunas - 0","attributeRange":92756.0,"attributeBase":429029.0,"normalize":true}],"outputNodes":[{"rm_object_type":"com.rapidminer.operator.learner.functions.neuralnet.InnerNode","@id":34,"layerIndex":-2,"nodeName":"Regression","nodeType":0,"weightsAreUpdated":true,"inputNodes":[3,5,7,9,11,13,15,17,19,21,23,25],"outputNodes":[{"rm_object_type":"com.rapidminer.operator.learner.functions.neuralnet.OutputNode","@id":35,"layerIndex":-2,"nodeName":"Casos + 1 (horizon)","nodeType":-2,"weightsAreUpdated":true,"inputNodes":[34],"outputNodes":[],"inputNodeOutputIndices":[0],"outputNodeInputIndices":[],"currentValue":43471.93553697534,"currentError":0.9148655391485021,"nominalLabel":false,"labelName":"Casos + 1 (horizon)","classIndex":0,"labelRange":6418.5,"labelBase":42925.5}],"inputNodeOutputIndices":[0,0,0,0,0,0,0,0,0,0,0,0],"outputNodeInputIndices":[0],"currentValue":0.08513446085149803,"currentError":0.9148655391485021,"weights":[0.04958187129571951,0.12246655165627515,0.2221915115823392,0.26864209896339036,-0.22833541319796763,0.02790120303530433,0.005240203404389538,-0.16877873109322328,-0.26283523644969714,0.1565954844362585,0.04235731722454126,-0.15902699915485782,-0.3273455085405894],"weightChanges":[0.009202178584441814,0.0050293540367410995,0.0055776805121243046,0.005873072933231174,0.003550829606657806,0.004610135072576371,0.0044280798794676356,0.00386631007369054,0.0032959494984591093,0.005263121276347453,0.004636296838917394,0.003609024830104554,0.003202920796160202],"randomGenerator":78628869040672,"function":{"rm_object_type":"com.rapidminer.operator.learner.functions.neuralnet.LinearFunction"}}],"inputNodeOutputIndices":[11,11,11,11,11,11,11,11,11,11,11,11,11,11,11,11,11,11,11,11],"outputNodeInputIndices":[11],"currentValue":0.34805284945330633,"currentError":-0.06861987965015683,"weights":[0.03027321330942596,0.1451156003406343,0.159361814104764,-0.0223270138224982,-0.09782996285547979,0.039384484728231334,0.14013489815513402,0.06269072524276678,-0.007150421497269793,0.03800394406041232,-0.010194478009205348,0.05011820066079512,-0.031792776567928234,-0.01454710299258024,-0.07729995009938528,-0.10393142324895284,0.02998287758789866,0.07920753138775746,0.11210974733031193,0.0015654315389267573,0.019418738886090248],"weightChanges":[-6.902624267709406E-4,5.993221086386567E-4,5.471817025827402E-4,-6.829613342763839E-4,-2.902338309145191E-4,6.065673891604511E-4,6.898236089653921E-4,-4.850585850482663E-7,2.663971482819978E-4,5.2777502766501886E-5,-3.983256995375222E-4,-7.11239673367685E-5,-2.739048084530739E-4,-2.5816575725608377E-4,-1.2364243632521777E-4,-6.869491232317364E-4,6.820915028890612E-4,2.3299516888588762E-4,-1.009972201993176E-4,1.5934253024287205E-5,-9.93856817489664E-5],"randomGenerator":78628869040672,"function":{"rm_object_type":"com.rapidminer.operator.learner.functions.neuralnet.SigmoidFunction"}}],"inputNodeOutputIndices":[],"outputNodeInputIndices":[11,11,11,11,11,11,11,11,11,11,11,11],"currentValue":0.39878102049730774,"currentError":-0.07134429819083596,"attributeName":"Vacunas - 8","attributeRange":122479.5,"attributeBase":390790.5,"normalize":true},26,27,28,29,30,31,32,33],"outputNodes":[34],"inputNodeOutputIndices":[10,10,10,10,10,10,10,10,10,10,10,10,10,10,10,10,10,10,10,10],"outputNodeInputIndices":[10],"currentValue":0.39203284469605953,"currentError":-0.03546309121230013,"weights":[-0.038900289431407574,0.0335998205519054,0.12418885279563233,-0.06199264776826431,-0.06583591918061037,-0.02108535327361602,0.10126544513626877,-0.02186411626966534,-0.012391962716699397,0.013972609053769802,0.0171246848433864,0.030292923131681734,-0.031879740041446704,-0.04317773635374072,-0.03443350282786862,-0.011364066081810283,0.053083816338387144,0.07098419532163922,-0.015934690582840184,-0.04600132103923775,0.030618135592125804],"weightChanges":[-3.567823111064763E-4,3.097542716905665E-4,2.828379127693373E-4,-3.5291706769355487E-4,-1.5004603839847443E-4,3.134620662923783E-4,3.5654970507185214E-4,-1.9921324445245695E-7,1.3767514182255522E-4,2.7279523664730456E-5,-2.058528882606825E-4,-3.6737503996474896E-5,-1.4155870041707502E-4,-1.334416161219406E-4,-6.391859243018383E-5,-3.5502795440721716E-4,3.524567151089463E-4,1.204647159067548E-4,-5.217739484638809E-5,8.243214364472274E-6,-5.1361574256634566E-5],"randomGenerator":78628869040672,"function":{"rm_object_type":"com.rapidminer.operator.learner.functions.neuralnet.SigmoidFunction"}},25],"inputNodeOutputIndices":[],"outputNodeInputIndices":[10,10,10,10,10,10,10,10,10,10,10,10],"currentValue":0.10596049778264012,"currentError":-0.07134429819083596,"attributeName":"Vacunas - 9","attributeRange":127967.5,"attributeBase":385302.5,"normalize":true},24,26,27,28,29,30,31,32,33],"outputNodes":[34],"inputNodeOutputIndices":[9,9,9,9,9,9,9,9,9,9,9,9,9,9,9,9,9,9,9,9],"outputNodeInputIndices":[9],"currentValue":0.5038055098007125,"currentError":0.008626915647445131,"weights":[0.025451281910504508,-0.048671545239115564,-2.4550742950603225E-4,-0.04003513422110915,0.004350423354829334,0.01704546257060038,-0.013851417701294584,0.02720744291839455,-0.029936393652204484,-0.03852411971027422,-0.039994744073069737,0.004315902135918003,-0.015271180270242723,-0.03700743012778301,-0.04168790271991384,0.046611473424035384,0.005687690314617557,0.029654099714338484,-0.01577207913662155,0.04209498520607933,-0.03441698502560989],"weightChanges":[8.673689456867865E-5,-7.532905278421112E-5,-6.874867339254367E-5,8.589630051238525E-5,3.644508894499528E-5,-7.627044699639105E-5,-8.668676836265824E-5,1.0414985229709896E-7,-3.349181317134624E-5,-6.632180700714954E-6,5.008092675145461E-5,8.95815478493671E-6,3.443257145601218E-5,3.2439511331906625E-5,1.5528181930458092E-5,8.635579287933208E-5,-8.579596274871648E-5,-2.9249038695320694E-5,1.2712792084922486E-5,-1.996259771380835E-6,1.2495806463650495E-5],"randomGenerator":78628869040672,"function":{"rm_object_type":"com.rapidminer.operator.learner.functions.neuralnet.SigmoidFunction"}},23,25],"inputNodeOutputIndices":[],"outputNodeInputIndices":[9,9,9,9,9,9,9,9,9,9,9,9],"currentValue":0.5808989639323829,"currentError":-0.07134429819083596,"attributeName":"Casos - 0","attributeRange":6418.5,"attributeBase":42925.5,"normalize":true},22,24,26,27,28,29,30,31,32,33],"outputNodes":[34],"inputNodeOutputIndices":[8,8,8,8,8,8,8,8,8,8,8,8,8,8,8,8,8,8,8,8],"outputNodeInputIndices":[8],"currentValue":0.5720050925835709,"currentError":0.03389437107807998,"weights":[0.00768487624151795,-0.03507056626752679,-0.05470715683419688,-0.03257556254117191,0.07968758838402962,-0.047005540067998786,-0.09179481242034727,0.020807348330554157,-0.05079242506822917,0.026847193396613865,0.05615144010738325,-2.6127251600669885E-4,-0.011598955580273015,-0.03539608807998506,0.030931760710242975,0.01316604173725858,-0.034356195517892825,-0.025247295193998553,-0.06859906603451386,-0.025071745246053514,-0.04840327724666629],"weightChanges":[3.408998524566411E-4,-2.9600962203494267E-4,-2.702252494367437E-4,3.3738520081230943E-4,1.4330733048814855E-4,-2.9962512749535583E-4,-3.4068873722898865E-4,2.909619460578986E-7,-1.3158535844629823E-4,-2.606505332417126E-5,1.967542250307045E-4,3.5151048687016966E-5,1.3529030194577333E-4,1.2749934435115536E-4,6.105263484563911E-5,3.393049873062809E-4,-3.369664139863984E-4,-1.1503482107415856E-4,4.9905507197365905E-5,-7.862357443466946E-6,4.909260858635526E-5],"randomGenerator":78628869040672,"function":{"rm_object_type":"com.rapidminer.operator.learner.functions.neuralnet.SigmoidFunction"}},21,23,25],"inputNodeOutputIndices":[],"outputNodeInputIndices":[8,8,8,8,8,8,8,8,8,8,8,8],"currentValue":-0.07641972423463426,"currentError":-0.07134429819083596,"attributeName":"Casos - 1","attributeRange":6418.5,"attributeBase":42925.5,"normalize":true},20,22,24,26,27,28,29,30,31,32,33],"outputNodes":[34],"inputNodeOutputIndices":[7,7,7,7,7,7,7,7,7,7,7,7,7,7,7,7,7,7,7,7],"outputNodeInputIndices":[7],"currentValue":0.3581281203701773,"currentError":-0.05596800303626849,"weights":[0.022102175678492677,0.12468488329370242,0.13654741316776375,-0.06053731470911515,-0.09351189804479107,0.0618832905658436,0.11715175700733181,0.06943007842345186,-0.03215294683383214,0.02746180958759959,-0.013168697641198929,0.03269921096635544,-0.012164703634255094,-0.032927179362984026,-0.04446332263582062,-0.05759949766347228,0.015419619900318069,0.11808986160922152,0.03690689202238854,0.03462891720113103,0.02704944573546514],"weightChanges":[-5.630182201968414E-4,4.888321427533064E-4,4.4631916829920436E-4,-5.57020380428891E-4,-2.3674649603637476E-4,4.94723859885328E-4,5.626579937277533E-4,-3.71427837977731E-7,2.1727997903111458E-4,4.304894035686026E-5,-3.248823766824828E-4,-5.8000835597069226E-5,-2.234047586445005E-4,-2.1057521044151977E-4,-1.0085551909169503E-4,-5.60296587566838E-4,5.563056878730071E-4,1.900610506854787E-4,-8.23667752527025E-5,1.3000193611528188E-5,-8.106011135384818E-5],"randomGenerator":78628869040672,"function":{"rm_object_type":"com.rapidminer.operator.learner.functions.neuralnet.SigmoidFunction"}},19,21,23,25],"inputNodeOutputIndices":[],"outputNodeInputIndices":[7,7,7,7,7,7,7,7,7,7,7,7],"currentValue":-0.38822577382156587,"currentError":-0.07134429819083596,"attributeName":"Casos - 2","attributeRange":4943.0,"attributeBase":44401.0,"normalize":true},18,20,22,24,26,27,28,29,30,31,32,33],"outputNodes":[34],"inputNodeOutputIndices":[6,6,6,6,6,6,6,6,6,6,6,6,6,6,6,6,6,6,6,6],"outputNodeInputIndices":[6],"currentValue":0.42022480313197325,"currentError":-0.03848156201036021,"weights":[-0.033520462173750876,0.016054010005548465,0.11268642707275679,-0.010548002266087899,-0.10943263688366936,-7.178740207689775E-4,0.03268930247270518,0.03754022762143533,0.01933369055793132,0.020596407858863415,-0.020782687843843135,0.07610674507695606,-0.01112823348946675,0.03467687157188971,-0.072796944953117,-0.012868312998426801,0.0626443118966647,0.05617552398471411,0.03465428528385084,-0.033865586966989485,0.037340082846145026],"weightChanges":[-3.870797537177351E-4,3.3608809379879627E-4,3.0683941659744675E-4,-3.8301216980798013E-4,-1.6274461124981998E-4,3.401631033063791E-4,3.868345971900559E-4,-2.874085237292993E-7,1.4939330880219006E-4,2.9595061236963976E-5,-2.2337897371400874E-4,-3.989229799286409E-5,-1.5360310897047654E-4,-1.4477239793140345E-4,-6.933080815235479E-5,-3.8523321184076115E-4,3.8252789950086693E-4,1.3064594818725428E-4,-5.664460533225193E-5,8.933469588687158E-6,-5.573627697345859E-5],"randomGenerator":78628869040672,"function":{"rm_object_type":"com.rapidminer.operator.learner.functions.neuralnet.SigmoidFunction"}},17,19,21,23,25],"inputNodeOutputIndices":[],"outputNodeInputIndices":[6,6,6,6,6,6,6,6,6,6,6,6],"currentValue":0.006676107626947198,"currentError":-0.07134429819083596,"attributeName":"Casos - 3","attributeRange":4943.0,"attributeBase":44401.0,"normalize":true},16,18,20,22,24,26,27,28,29,30,31,32,33],"outputNodes":[34],"inputNodeOutputIndices":[5,5,5,5,5,5,5,5,5,5,5,5,5,5,5,5,5,5,5,5],"outputNodeInputIndices":[5],"currentValue":0.48111271790725685,"currentError":1.854809124276199E-4,"weights":[-0.04156761147698766,-0.04544792230097462,0.020561007739302747,0.0307188284156257,0.03863969989390706,0.02877363274262722,-0.008701512905618772,-0.03929745286710127,0.020802185972569023,0.04194689104693767,0.045324098185005435,-0.014296394645383983,-0.016323838650455162,-0.008517680185799141,-0.02007508962730373,-0.0534355207609043,0.02671322849759215,0.03721021330714624,0.03327091878210933,-0.013160484020969879,-4.2189630658966083E-4],"weightChanges":[1.8295418204797587E-6,-1.6051658902452167E-6,-1.4430080681393763E-6,1.874687771831209E-6,7.484974022266963E-7,-1.6501432484404201E-6,-1.8327233763612923E-6,3.747433717188915E-8,-7.203846325297657E-7,-1.4031026659470803E-7,1.07951806238186E-6,2.059084092022518E-7,7.379647833989501E-7,6.832828537175647E-7,3.2085426445652924E-7,1.8504644012113047E-6,-1.8798397509170328E-6,-5.937287759438628E-7,2.8579283070174585E-7,-3.718244818734234E-8,2.692989169693111E-7],"randomGenerator":78628869040672,"function":{"rm_object_type":"com.rapidminer.operator.learner.functions.neuralnet.SigmoidFunction"}},15,17,19,21,23,25],"inputNodeOutputIndices":[],"outputNodeInputIndices":[5,5,5,5,5,5,5,5,5,5,5,5],"currentValue":-1.0,"currentError":-0.07134429819083596,"attributeName":"Casos - 4","attributeRange":3598.0,"attributeBase":43056.0,"normalize":true},14,16,18,20,22,24,26,27,28,29,30,31,32,33],"outputNodes":[34],"inputNodeOutputIndices":[4,4,4,4,4,4,4,4,4,4,4,4,4,4,4,4,4,4,4,4],"outputNodeInputIndices":[4],"currentValue":0.5007852569503047,"currentError":0.005327035723026251,"weights":[0.03665204676145965,-0.030426936839087627,0.003873813912091996,-0.012754637272633634,-0.024060148233577102,-0.0018395532889497758,-0.006304977154129371,-0.015613567007629963,-0.0045290865238639825,-0.0031929676245546156,-0.028990957682327866,-1.1610702699808383E-4,-0.007537786202233188,-0.0024747443595355273,0.020924094860137316,0.003461380271749749,0.029342326576594562,-0.02775142076081749,-0.03576612585557077,-0.03356663138860478,-0.03627779481532499],"weightChanges":[5.354180110452934E-5,-4.650781478001541E-5,-4.243431961206939E-5,5.305385762381008E-5,2.2487181132792098E-5,-4.71013230619125E-5,-5.351292543193486E-5,8.166340332289353E-8,-2.0681002692947374E-5,-4.094155127832726E-6,3.092582948800176E-5,5.538139668573351E-6,2.1260624316307646E-5,2.0024121194910776E-5,9.582065056158152E-6,5.332078685564432E-5,-5.299550698063116E-5,-1.80436744803623E-5,7.856176116945067E-6,-1.2298487031826697E-6,7.716377371370943E-6],"randomGenerator":78628869040672,"function":{"rm_object_type":"com.rapidminer.operator.learner.functions.neuralnet.SigmoidFunction"}},13,15,17,19,21,23,25],"inputNodeOutputIndices":[],"outputNodeInputIndices":[4,4,4,4,4,4,4,4,4,4,4,4],"currentValue":-0.8856756756756756,"currentError":-0.07134429819083596,"attributeName":"Casos - 5","attributeRange":3700.0,"attributeBase":43158.0,"normalize":true},12,14,16,18,20,22,24,26,27,28,29,30,31,32,33],"outputNodes":[34],"inputNodeOutputIndices":[3,3,3,3,3,3,3,3,3,3,3,3,3,3,3,3,3,3,3,3],"outputNodeInputIndices":[3],"currentValue":0.38582861674016494,"currentError":-0.05027085432410508,"weights":[-0.0070253700066246335,0.0764860227186867,0.12014983373746232,-0.004317854366874742,-0.10522193270326242,-0.02177496691639119,0.0948937852019813,-0.005544229775957506,0.029976181787053732,-0.004147855345028904,-0.06316623619883042,0.03603786321653237,-0.04795244247068826,0.018034885743298954,-0.043664553840198746,-0.042542877730090044,0.05814381057536511,0.09078925393253345,0.08382672467479313,-0.05155286298227613,0.035227705170453955],"weightChanges":[-5.057029850373946E-4,4.3906897806804016E-4,4.0088113251826596E-4,-5.003232754836673E-4,-2.1264126218190082E-4,4.4436553419261896E-4,5.053789409060037E-4,-3.383546758971786E-7,1.9516184216616044E-4,3.8665183400439675E-5,-2.918113518292399E-4,-5.2099283944047084E-5,-2.0066361447599362E-4,-1.891393542249308E-4,-9.05858564240544E-5,-5.032609653429498E-4,4.996826943320779E-4,1.707085278895305E-4,-7.39847813148114E-5,1.1676270878161965E-5,-7.281019442634277E-5],"randomGenerator":78628869040672,"function":{"rm_object_type":"com.rapidminer.operator.learner.functions.neuralnet.SigmoidFunction"}},11,13,15,17,19,21,23,25],"inputNodeOutputIndices":[],"outputNodeInputIndices":[3,3,3,3,3,3,3,3,3,3,3,3],"currentValue":0.4169076751946607,"currentError":-0.07134429819083596,"attributeName":"Casos - 6","attributeRange":4495.0,"attributeBase":42363.0,"normalize":true},10,12,14,16,18,20,22,24,26,27,28,29,30,31,32,33],"outputNodes":[34],"inputNodeOutputIndices":[2,2,2,2,2,2,2,2,2,2,2,2,2,2,2,2,2,2,2,2],"outputNodeInputIndices":[2],"currentValue":0.6384895071612712,"currentError":0.05548889956106869,"weights":[0.0023944395169884685,-0.08733105364150573,-0.056842971445796496,0.008609724979390818,0.05899945006599331,-0.04233803168633985,-0.1418685586050402,-0.0014502087115143324,-0.06164232921727306,-0.026674384224513056,0.04318995682350396,-0.0778245570398843,0.07111312964574257,0.007929629810228935,0.014713958372335939,0.09754450060313619,-0.041158910896984965,-0.08745083820196502,-0.023933834822096985,0.023354787167959967,-0.021204851572694798],"weightChanges":[5.582469955428267E-4,-4.8466849689658286E-4,-4.425478224548722E-4,5.522135777586595E-4,2.3476925970459414E-4,-4.904747919838287E-4,-5.578846038130725E-4,3.194959847963498E-7,-2.15419945104717E-4,-4.268442156273189E-5,3.220978567520768E-4,5.748547200114496E-5,2.214954651333862E-4,2.0879155109917755E-4,1.0001109213507438E-4,5.555091919975015E-4,-5.514946594782913E-4,-1.8848324282892372E-4,8.16440248994656E-5,-1.28967391346751E-5,8.036451277505123E-5],"randomGenerator":78628869040672,"function":{"rm_object_type":"com.rapidminer.operator.learner.functions.neuralnet.SigmoidFunction"}},9,11,13,15,17,19,21,23,25],"inputNodeOutputIndices":[],"outputNodeInputIndices":[2,2,2,2,2,2,2,2,2,2,2,2],"currentValue":1.0,"currentError":-0.07134429819083596,"attributeName":"Casos - 7","attributeRange":5018.5,"attributeBase":41839.5,"normalize":true},8,10,12,14,16,18,20,22,24,26,27,28,29,30,31,32,33],"outputNodes":[34],"inputNodeOutputIndices":[1,1,1,1,1,1,1,1,1,1,1,1,1,1,1,1,1,1,1,1],"outputNodeInputIndices":[1],"currentValue":0.6061596906458591,"currentError":0.04730975172845342,"weights":[0.046411582520222726,-0.049346163323715296,-0.07443386786696335,0.02233901790021358,0.10750148081107032,0.027388672441758556,-0.0622776184058728,-0.037585755034590135,-0.03634733339186805,0.015238781838714152,0.048454279004868796,-0.04927195529237062,-0.026141978288212984,-0.04406274821883731,0.051594295563405286,0.07005494411109685,-0.06796655127635048,-0.09314141337541007,-0.04021853088459471,-0.022453633592150288,0.0014001153007050346],"weightChanges":[4.7584188136266385E-4,-4.1317704797298353E-4,-3.7719546813355653E-4,4.7091076572636903E-4,2.00043613053632E-4,-4.1821261651247426E-4,-4.755461369391911E-4,3.916639578935245E-7,-1.8366706270234355E-4,-3.6383408006325035E-5,2.746287674081102E-4,4.905788916087752E-5,1.8883899019341534E-4,1.7796864000330182E-4,8.522356667509557E-5,4.7360468019219475E-4,-4.703229810724176E-4,-1.6058057514616505E-4,6.965253343866408E-5,-1.0976517496474114E-5,6.85223231097975E-5],"randomGenerator":78628869040672,"function":{"rm_object_type":"com.rapidminer.operator.learner.functions.neuralnet.SigmoidFunction"}},7,9,11,13,15,17,19,21,23,25],"inputNodeOutputIndices":[],"outputNodeInputIndices":[1,1,1,1,1,1,1,1,1,1,1,1],"currentValue":-0.7913719238816379,"currentError":-0.07134429819083596,"attributeName":"Casos - 8","attributeRange":5018.5,"attributeBase":41839.5,"normalize":true},6,8,10,12,14,16,18,20,22,24,26,27,28,29,30,31,32,33],"outputNodes":[34],"inputNodeOutputIndices":[0,0,0,0,0,0,0,0,0,0,0,0,0,0,0,0,0,0,0,0],"outputNodeInputIndices":[0],"currentValue":0.5465863282359564,"currentError":0.026626637391853666,"weights":[0.005815015494022019,-0.020183019625815195,-0.035755022028817446,-0.03136625891057831,0.05539301495603299,0.006110628532715136,-0.07485950862975559,-0.007584409582167052,-0.006374265116604906,-0.04050421869950241,-0.003049240491654093,-0.05561959489594689,0.014820214966096756,-0.0403060609041427,-0.022540999360111134,0.035018410792371675,-0.05532229426426103,-0.0032920903208512172,0.029262044921618383,-0.009821421623023482,-0.03077665919426042],"weightChanges":[2.6779001461881544E-4,-2.32533056132059E-4,-2.1226980435453072E-4,2.65052343675786E-4,1.1256602490329848E-4,-2.3538241342497672E-4,-2.676257664954333E-4,2.41579034454669E-7,-1.0337055415661901E-4,-2.0475297628666334E-5,1.5456662569391513E-4,2.7618747217901244E-5,1.0628007526860185E-4,1.0015528808119524E-4,4.7956782237189065E-5,2.6654790678301175E-4,-2.647260426934351E-4,-9.035576162243881E-5,3.920920074906089E-5,-6.174364503795899E-6,3.856622335264121E-5],"randomGenerator":78628869040672,"function":{"rm_object_type":"com.rapidminer.operator.learner.functions.neuralnet.SigmoidFunction"}},5,7,9,11,13,15,17,19,21,23,25],"inputNodeOutputIndices":[],"outputNodeInputIndices":[0,0,0,0,0,0,0,0,0,0,0,0],"currentValue":-0.870829450139795,"currentError":-0.07134429819083596,"attributeName":"Casos - 9","attributeRange":5365.0,"attributeBase":41493.0,"normalize":true},4,6,8,10,12,14,16,18,20,22,24,26,27,28,29,30,31,32,33],"innerNodes":[34,3,5,7,9,11,13,15,17,19,21,23,25],"outputNodes":[35],"rm_object_annotations":{}}